784
-7.609538733959197998e-02 -5.749661475419998169e-02 8.398165553808212280e-02 2.496019005775451660e-03 5.565305799245834351e-02 8.352965861558914185e-02 1.989302039146423340e-02 -5.158227682113647461e-02 -4.914265498518943787e-02 2.516324818134307861e-02 8.543825894594192505e-02 -1.183329522609710693e-02 2.643886022269725800e-02 -1.350418329238891602e-01 -7.915320247411727905e-02 -1.007180213928222656e-01 7.360512763261795044e-02 -3.269591927528381348e-02 6.664758175611495972e-02 -4.119135066866874695e-02 2.535684406757354736e-02 -7.150043547153472900e-02 -2.787736058235168457e-02 5.752759426832199097e-02 -4.755740240216255188e-02 6.446459144353866577e-02 -8.609574288129806519e-02 7.550836354494094849e-02 4.090548306703567505e-02 7.365099340677261353e-02 8.778251707553863525e-03 -6.339472532272338867e-02 6.600408256053924561e-02 -5.593068525195121765e-02 -8.762757480144500732e-02 -2.147441953420639038e-01 -1.671633720397949219e-01 -4.059295356273651123e-01 -4.922253787517547607e-01 -2.150102555751800537e-01 -3.416630923748016357e-01 -4.844896495342254639e-01 -8.223127126693725586e-01 -6.523671746253967285e-01 -5.711417794227600098e-01 -5.260329842567443848e-01 -5.076661705970764160e-01 -4.797400236129760742e-01 -3.746635019779205322e-01 -2.155887484550476074e-01 -1.212704703211784363e-01 -2.236455492675304413e-02 7.634299248456954956e-02 5.346993356943130493e-02 -7.984106987714767456e-02 5.442733317613601685e-02 -3.359685838222503662e-02 5.203530937433242798e-02 3.185600042343139648e-02 3.954368084669113159e-02 1.490267645567655563e-02 -1.083721667528152466e-01 -1.815141886472702026e-01 -4.308237433433532715e-01 -6.367464065551757812e-01 -1.156339049339294434e+00 -1.662388086318969727e+00 -1.121335268020629883e+00 -1.252438902854919434e+00 -1.160399317741394043e+00 -1.414188504219055176e+00 -1.643252372741699219e+00 -1.552452087402343750e+00 -1.911951065063476562e+00 -2.046298742294311523e+00 -2.076027393341064453e+00 -1.777959108352661133e+00 -1.381610155105590820e+00 -1.068788409233093262e+00 -7.443879842758178711e-01 -4.289326667785644531e-01 -1.216478459537029266e-02 3.731559216976165771e-02 -1.185372471809387207e-03 -6.399215757846832275e-02 -3.143417090177536011e-02 -8.701784163713455200e-02 -4.178799316287040710e-02 -9.792010486125946045e-02 -3.641525506973266602e-01 -5.387047529220581055e-01 -7.015266418457031250e-01 -7.375224232673645020e-01 -6.126030087471008301e-01 -4.284343123435974121e-01 -3.334254920482635498e-01 -4.004206955432891846e-01 -3.005530536174774170e-01 -3.926426172256469727e-01 -3.475187420845031738e-01 -1.912982612848281860e-01 -4.234817326068878174e-01 -5.516693592071533203e-01 -7.572592496871948242e-01 -5.494076013565063477e-01 -8.482034206390380859e-01 -9.466370940208435059e-01 -7.319834828376770020e-01 -8.865250349044799805e-01 -3.322051167488098145e-01 -3.230879828333854675e-02 -3.794113174080848694e-02 -5.318939685821533203e-02 -6.087746098637580872e-02 -7.012847065925598145e-02 -2.366720885038375854e-01 -6.207769513130187988e-01 -9.143835306167602539e-01 -6.254608035087585449e-01 -4.527638554573059082e-01 -3.143533170223236084e-01 -2.710682749748229980e-01 -2.167619019746780396e-01 -1.421597450971603394e-01 -2.925879359245300293e-01 -1.027461960911750793e-01 -3.267620205879211426e-01 -6.496390700340270996e-02 -2.726864218711853027e-01 -5.975446477532386780e-02 -1.583665758371353149e-01 -1.872051805257797241e-01 -2.440045326948165894e-01 -4.178887009620666504e-01 -3.233880698680877686e-01 -3.126593530178070068e-01 -6.811205744743347168e-01 -8.095588088035583496e-01 -4.660256206989288330e-01 -8.532240986824035645e-02 -3.961987793445587158e-02 -8.058205246925354004e-03 -3.491494655609130859e-01 -3.892351090908050537e-01 -7.541503906250000000e-01 -8.350203633308410645e-01 -5.770505070686340332e-01 -4.371370971202850342e-01 -1.962204575538635254e-01 -1.912604123353958130e-01 -5.929901450872421265e-02 -9.036395698785781860e-02 -1.912020295858383179e-01 3.215985745191574097e-02 8.501513302326202393e-02 -2.971977367997169495e-02 1.881943456828594208e-02 2.100946381688117981e-02 4.621865227818489075e-02 -8.065726608037948608e-02 -2.986746132373809814e-01 -1.885918229818344116e-01 -2.173787802457809448e-01 -5.667015910148620605e-01 -1.005263447761535645e+00 -1.462846398353576660e+00 -9.353343248367309570e-01 -2.590065896511077881e-01 2.411688119173049927e-02 -1.389221996068954468e-01 -3.259372413158416748e-01 -9.058468341827392578e-01 -8.652220964431762695e-01 -5.407096743583679199e-01 -2.107140123844146729e-01 -3.288377821445465088e-02 -2.718194127082824707e-01 -3.964895009994506836e-01 -1.780022084712982178e-01 -8.630889654159545898e-02 -1.335139423608779907e-01 8.935561031103134155e-02 3.153736144304275513e-02 -2.924641221761703491e-02 8.824603259563446045e-02 4.000387340784072876e-02 1.646745651960372925e-01 -5.048406776040792465e-03 1.334475725889205933e-02 3.402524068951606750e-02 2.197367139160633087e-02 -3.525016903877258301e-01 -1.077270388603210449e+00 -1.819139719009399414e+00 -9.816671013832092285e-01 -2.587490081787109375e-01 -6.443627923727035522e-02 -2.240398228168487549e-01 -4.168613255023956299e-01 -8.844059705734252930e-01 -9.397543072700500488e-01 -3.818169832229614258e-01 -1.224297285079956055e-01 -2.466129511594772339e-01 -3.977655172348022461e-01 -1.150551959872245789e-01 -1.009086221456527710e-01 -7.795125991106033325e-02 -4.448939580470323563e-03 3.515163064002990723e-02 3.556774184107780457e-02 -1.066752709448337555e-02 3.918593376874923706e-02 2.038731127977371216e-01 2.162702232599258423e-01 1.171236038208007812e-01 -4.791337624192237854e-02 -4.510793834924697876e-02 -1.626760065555572510e-01 -3.383188322186470032e-02 -5.929710268974304199e-01 -1.826352119445800781e+00 -1.283049225807189941e+00 -3.871410489082336426e-01 1.376008540391921997e-01 -3.005893230438232422e-01 -3.687448203563690186e-01 -5.424224138259887695e-01 -8.969755172729492188e-01 -4.414507150650024414e-01 -1.155327335000038147e-01 -2.359708398580551147e-01 -1.679646521806716919e-01 6.911531090736389160e-02 -1.618754677474498749e-02 -4.966031387448310852e-02 7.974823564291000366e-02 -5.302254110574722290e-02 1.348186582326889038e-01 2.139910906553268433e-01 3.774812221527099609e-01 1.984403133392333984e-01 1.456803083419799805e-01 -4.555300995707511902e-02 5.995845049619674683e-02 6.788032595068216324e-03 -1.724996231496334076e-02 1.080991923809051514e-01 -2.622658610343933105e-01 -2.138596534729003906e+00 -1.486063480377197266e+00 -3.596899211406707764e-01 -4.778769984841346741e-02 -2.720127105712890625e-01 -4.316139221191406250e-01 -4.428924620151519775e-01 -5.340697169303894043e-01 -3.400523960590362549e-01 -3.480882942676544189e-01 -2.981704771518707275e-01 -2.507980465888977051e-01 -4.691091924905776978e-02 -1.028683385811746120e-03 -1.989118307828903198e-01 -1.104616448283195496e-01 2.186976969242095947e-01 -2.257513441145420074e-02 -2.074476629495620728e-01 1.427644193172454834e-01 2.907418608665466309e-01 2.690978944301605225e-01 2.640807032585144043e-01 7.331667840480804443e-02 -2.150273621082305908e-01 -2.228343337774276733e-01 1.100762486457824707e-01 6.105826050043106079e-02 -1.505680084228515625e+00 -1.406733870506286621e+00 -3.470560908317565918e-01 -5.983722861856222153e-03 -2.310733944177627563e-01 -4.381875991821289062e-01 -4.198006093502044678e-01 -6.445476412773132324e-01 -1.578975915908813477e-01 -3.504595756530761719e-01 -1.699993610382080078e-01 -2.652394175529479980e-01 -9.801387041807174683e-02 -2.551341950893402100e-01 -8.216027915477752686e-02 -1.048237979412078857e-01 -1.746894791722297668e-02 -1.197964400053024292e-01 -2.564098536968231201e-01 -1.261697113513946533e-01 1.689598560333251953e-01 1.356721371412277222e-01 -4.126576334238052368e-02 7.780531048774719238e-02 -6.116464361548423767e-02 8.326182514429092407e-02 9.597679227590560913e-02 2.707376331090927124e-02 -1.235029220581054688e+00 -1.219372510910034180e+00 -3.936018347740173340e-01 -3.963070362806320190e-02 -1.059494316577911377e-01 -7.983889579772949219e-01 -7.343677878379821777e-01 -7.043960094451904297e-01 -2.976389229297637939e-01 -7.939832657575607300e-02 -1.304046958684921265e-01 -1.325381696224212646e-01 -2.911905646324157715e-01 -2.799563705921173096e-01 -8.381854742765426636e-02 -3.038375377655029297e-01 -1.917955726385116577e-01 -4.883065223693847656e-01 -7.476709485054016113e-01 -5.841581225395202637e-01 -1.700490713119506836e-01 -1.720869690179824829e-01 -6.174815073609352112e-02 4.358378425240516663e-02 1.974350959062576294e-01 1.224036514759063721e-01 -2.163096703588962555e-02 7.099802047014236450e-02 -7.575902342796325684e-01 -8.325284123420715332e-01 -1.887916475534439087e-01 -1.106837689876556396e-01 -2.528612613677978516e-01 -5.964230895042419434e-01 -8.755353689193725586e-01 -4.606554806232452393e-01 -2.032385170459747314e-01 9.532756172120571136e-03 -7.285965234041213989e-02 -1.770460605621337891e-01 -1.808149516582489014e-01 -1.038092672824859619e-01 -6.398283690214157104e-02 -1.270918697118759155e-01 -2.871859669685363770e-01 -7.614830732345581055e-01 -9.607726931571960449e-01 -7.038728594779968262e-01 -2.573873698711395264e-01 -1.971164643764495850e-01 -1.133653670549392700e-01 -1.081333830952644348e-01 -6.555118411779403687e-02 3.770212084054946899e-02 5.005295202136039734e-02 3.571930825710296631e-01 -3.786104321479797363e-01 -5.820269584655761719e-01 -2.223538160324096680e-01 2.268336527049541473e-02 -9.208716452121734619e-02 -2.843733131885528564e-01 -7.384089827537536621e-01 -3.365726768970489502e-01 -7.524084299802780151e-02 1.347043365240097046e-01 1.196556091308593750e-01 -2.348531968891620636e-03 -1.253420561552047729e-01 -1.851120963692665100e-02 -1.313629448413848877e-01 -6.063868850469589233e-02 -5.499826669692993164e-01 -8.129326701164245605e-01 -1.112052202224731445e+00 -7.926707863807678223e-01 -2.761824429035186768e-01 -1.877180039882659912e-01 -1.640765070915222168e-01 -3.210248351097106934e-01 -1.249590590596199036e-01 3.794331848621368408e-02 1.068623512983322144e-01 2.934941053390502930e-01 -2.928093969821929932e-01 -7.309067845344543457e-01 -1.500326395034790039e-01 -6.655462831258773804e-02 -2.291661649942398071e-01 -2.804544270038604736e-01 -9.776315689086914062e-01 -2.226184159517288208e-01 1.501839980483055115e-02 3.564374893903732300e-02 2.460375577211380005e-01 7.937415689229965210e-02 6.944229453802108765e-02 -4.902977496385574341e-02 1.354138404130935669e-01 5.549537762999534607e-02 -3.360542654991149902e-01 -9.406515955924987793e-01 -1.050031423568725586e+00 -8.381161093711853027e-01 -1.647388339042663574e-01 -1.743693649768829346e-01 -2.398955076932907104e-01 -1.716535538434982300e-01 -1.092088641598820686e-04 -8.276913315057754517e-02 1.299260407686233521e-01 1.180520430207252502e-01 -1.981716901063919067e-01 -7.611135244369506836e-01 -2.180766612291336060e-01 -6.032989546656608582e-02 2.419945597648620605e-02 -5.098865628242492676e-01 -9.941996335983276367e-01 -5.823005735874176025e-02 6.767726689577102661e-02 -2.981155812740325928e-01 2.936085760593414307e-01 1.839380711317062378e-01 1.833431422710418701e-01 9.490268677473068237e-02 -1.347272749990224838e-02 -1.198739856481552124e-01 -7.161951661109924316e-01 -1.201635599136352539e+00 -8.377834558486938477e-01 -5.751424431800842285e-01 -2.977267801761627197e-01 -1.759469807147979736e-01 -1.265071481466293335e-01 3.998491168022155762e-02 -4.632604867219924927e-02 -1.186194121837615967e-01 1.380186248570680618e-02 2.235371060669422150e-02 -2.662076950073242188e-01 -8.397259712219238281e-01 -2.559358775615692139e-01 1.144590228796005249e-02 -6.319854408502578735e-02 -5.010410547256469727e-01 -1.113928914070129395e+00 -1.399888545274734497e-01 1.268600076436996460e-01 -1.125673800706863403e-01 1.292673647403717041e-01 1.399840116500854492e-01 1.679811477661132812e-01 1.753333210945129395e-01 8.208709955215454102e-02 -4.002486467361450195e-01 -1.050780653953552246e+00 -9.593812227249145508e-01 -5.159806609153747559e-01 -3.839310705661773682e-01 -2.041337043046951294e-01 -1.098727136850357056e-01 -1.336526423692703247e-01 9.536953270435333252e-02 -1.144626736640930176e-01 -5.456134304404258728e-02 4.356573335826396942e-03 -3.008818626403808594e-01 -4.192408323287963867e-01 -8.284848332405090332e-01 -1.528495103120803833e-01 -7.654513418674468994e-02 -6.906428933143615723e-02 -6.303632855415344238e-01 -9.677232503890991211e-01 -1.405295282602310181e-01 -4.799371212720870972e-02 -7.945967465639114380e-02 -3.809347748756408691e-02 1.218392420560121536e-02 1.473823934793472290e-01 2.658972442150115967e-01 7.423363626003265381e-02 -2.883595824241638184e-01 -9.340609312057495117e-01 -7.844648361206054688e-01 -4.424345195293426514e-01 -2.516202032566070557e-01 -2.028863504528999329e-02 -1.115608811378479004e-01 -1.274104118347167969e-01 1.692500896751880646e-02 -9.393686801195144653e-02 -9.109640121459960938e-02 -1.922600865364074707e-01 -2.104080915451049805e-01 -5.400740504264831543e-01 -7.028186321258544922e-01 -1.387807130813598633e-01 -2.527658641338348389e-02 -1.023549288511276245e-01 -6.714634895324707031e-01 -1.224298000335693359e+00 -3.284545838832855225e-01 -2.779850959777832031e-01 -1.860441863536834717e-01 -5.485800281167030334e-02 1.463517397642135620e-01 2.130132019519805908e-01 2.631932199001312256e-01 5.219202116131782532e-02 -3.839969635009765625e-01 -7.734717726707458496e-01 -6.096067428588867188e-01 -2.637934386730194092e-01 -1.789822131395339966e-01 -1.215312629938125610e-01 -3.456053137779235840e-02 -2.040857076644897461e-01 -2.199997007846832275e-01 -6.360476464033126831e-02 3.607225418090820312e-02 -2.731330692768096924e-01 -3.689291179180145264e-01 -8.154075145721435547e-01 -7.679122090339660645e-01 -2.952998280525207520e-01 -3.143663983792066574e-03 -9.204746037721633911e-02 -7.700700759887695312e-01 -8.540065288543701172e-01 -2.763636708259582520e-01 -3.316771090030670166e-01 -8.790040016174316406e-02 -2.519145607948303223e-02 -9.854746051132678986e-03 -1.546288933604955673e-02 9.670676290988922119e-02 2.336882054805755615e-01 8.210601657629013062e-02 -2.539154887199401855e-01 -2.814674079418182373e-01 -2.098238617181777954e-01 -2.371376603841781616e-01 -1.621596515178680420e-01 -1.740724295377731323e-01 -1.523669511079788208e-01 -1.742209047079086304e-01 -5.626843497157096863e-02 3.197729960083961487e-02 -1.918751150369644165e-01 -2.116778939962387085e-01 -9.078123569488525391e-01 -7.480150461196899414e-01 -7.220737636089324951e-02 -2.306700497865676880e-02 -1.130469143390655518e-01 -7.010395526885986328e-01 -6.466781497001647949e-01 -2.010468989610671997e-01 -8.364185690879821777e-02 -1.850626617670059204e-01 -1.682954281568527222e-01 -7.205404341220855713e-02 -8.560261875391006470e-02 2.588538825511932373e-01 2.817242741584777832e-01 2.562235295772552490e-01 1.313262581825256348e-01 -9.847174584865570068e-02 -9.620525687932968140e-02 -1.677436679601669312e-01 -7.259602844715118408e-02 -1.769907474517822266e-01 -3.366541862487792969e-01 -2.208452969789505005e-01 -1.276992112398147583e-01 -9.770002216100692749e-02 -3.910540044307708740e-01 -4.095264375209808350e-01 -7.941696047782897949e-01 -6.194320321083068848e-01 -1.144750490784645081e-01 8.110509067773818970e-02 -1.143966391682624817e-01 -6.001614332199096680e-01 -5.151880979537963867e-01 -3.296140730381011963e-01 -1.868577748537063599e-01 -2.122448533773422241e-01 -1.346706151962280273e-01 -2.424814701080322266e-01 -2.693379111588001251e-02 1.252508163452148438e-01 2.467790246009826660e-01 1.721100658178329468e-01 2.305381000041961670e-02 -9.403549134731292725e-02 3.815895691514015198e-02 -6.825897097587585449e-02 -3.692093193531036377e-01 -3.271001577377319336e-01 -4.507209360599517822e-01 -2.811430990695953369e-01 -1.870234757661819458e-01 -2.769210338592529297e-01 -5.210692286491394043e-01 -5.160157680511474609e-01 -8.403150439262390137e-01 -1.947728395462036133e-01 9.224740415811538696e-02 1.970542408525943756e-02 -2.210258692502975464e-02 -8.218242526054382324e-01 -8.316507339477539062e-01 -7.777659296989440918e-01 -2.583592534065246582e-01 -2.018740624189376831e-01 -1.928229033946990967e-01 -5.216142535209655762e-02 -3.792472183704376221e-02 -8.799933828413486481e-03 1.115989014506340027e-01 1.441376805305480957e-01 3.083115816116333008e-01 1.976397261023521423e-02 1.261932589113712311e-02 -5.833247676491737366e-02 -1.110989898443222046e-01 -2.624345719814300537e-01 -2.016353011131286621e-01 -2.380436509847640991e-01 -2.057808041572570801e-01 -4.373382031917572021e-01 -5.176413655281066895e-01 -4.915751516819000244e-01 -5.770853757858276367e-01 -4.682539030909538269e-02 7.771346718072891235e-02 1.684881746768951416e-03 3.636319935321807861e-02 -5.212749838829040527e-01 -9.803312420845031738e-01 -7.327018976211547852e-01 -3.852667808532714844e-01 -2.597022354602813721e-01 -1.988592445850372314e-01 -2.055241726338863373e-02 6.946294754743576050e-02 2.626011669635772705e-01 2.977357208728790283e-01 1.112460643053054810e-01 1.699242442846298218e-01 1.698207557201385498e-01 -1.203757245093584061e-03 -8.064956218004226685e-02 -2.295081503689289093e-02 -4.386887550354003906e-01 -5.792595744132995605e-01 -5.655437707901000977e-01 -6.396732330322265625e-01 -5.527612566947937012e-01 -7.809959053993225098e-01 -5.723189115524291992e-01 -3.616491258144378662e-01 -2.127378284931182861e-01 -4.247848689556121826e-02 5.400864034891128540e-02 -8.029323816299438477e-02 -2.506355345249176025e-01 -9.678418636322021484e-01 -4.675322473049163818e-01 -7.516938447952270508e-01 -7.428855895996093750e-01 -5.545026063919067383e-01 -3.058771491050720215e-01 -1.811890006065368652e-01 4.686909168958663940e-02 -1.345952898263931274e-01 1.511870622634887695e-01 1.793243363499641418e-02 -1.054118052124977112e-01 -4.704868420958518982e-02 -2.552001476287841797e-01 -3.525569736957550049e-01 -4.429425895214080811e-01 -7.204192280769348145e-01 -1.002676606178283691e+00 -1.075934767723083496e+00 -1.008017897605895996e+00 -1.034723520278930664e+00 -6.322897672653198242e-01 -2.151610255241394043e-01 -8.930266648530960083e-02 -7.982129603624343872e-02 -4.978120699524879456e-02 5.147270113229751587e-02 -1.030783951282501221e-01 -1.987212449312210083e-01 -7.720175981521606445e-01 -1.234518766403198242e+00 -1.145278692245483398e+00 -1.295745015144348145e+00 -1.414603590965270996e+00 -1.396356582641601562e+00 -1.293690562248229980e+00 -1.199262380599975586e+00 -1.410490155220031738e+00 -1.450853824615478516e+00 -1.490206122398376465e+00 -1.502405881881713867e+00 -1.728535771369934082e+00 -1.613687634468078613e+00 -1.357853174209594727e+00 -1.454209446907043457e+00 -1.070661187171936035e+00 -9.060412049293518066e-01 -7.311922311782836914e-01 -7.520443797111511230e-01 -4.761059582233428955e-01 -1.043098568916320801e-01 -2.215623296797275543e-02 5.675601214170455933e-02 8.760489523410797119e-03 -2.071440964937210083e-02 -7.235042750835418701e-02 -1.055627092719078064e-01 -3.414080142974853516e-01 -6.327258944511413574e-01 -9.201356172561645508e-01 -1.160167574882507324e+00 -1.554582953453063965e+00 -1.530305624008178711e+00 -1.747342348098754883e+00 -2.205783843994140625e+00 -2.576745510101318359e+00 -1.554229140281677246e+00 -1.500242352485656738e+00 -1.495798468589782715e+00 -1.537052512168884277e+00 -1.423489451408386230e+00 -1.200831532478332520e+00 -1.332321166992187500e+00 -7.255791425704956055e-01 -5.196316838264465332e-01 -4.840872883796691895e-01 -3.996395468711853027e-01 -1.069876775145530701e-01 -2.139263413846492767e-02 -6.766341626644134521e-02 -4.474416002631187439e-02 7.710983604192733765e-02 -6.239341199398040771e-02 -3.871718049049377441e-02 6.058938801288604736e-03 -3.809472173452377319e-02 -3.503752872347831726e-02 -3.123418688774108887e-01 -4.055477082729339600e-01 -6.042784452438354492e-01 -6.198894381523132324e-01 -9.235135912895202637e-01 -9.161364436149597168e-01 -1.075746417045593262e+00 -1.059358716011047363e+00 -1.083108782768249512e+00 -8.572409749031066895e-01 -8.246569633483886719e-01 -8.170580267906188965e-01 -5.515145659446716309e-01 -3.702508509159088135e-01 -1.745559126138687134e-01 -3.329169452190399170e-01 -1.731652468442916870e-01 -5.413138121366500854e-02 -6.699676066637039185e-02 1.847147196531295776e-02 6.603456288576126099e-02 -1.935057342052459717e-03
-6.077064573764801025e-02 4.511622339487075806e-02 1.422906666994094849e-02 -6.135622411966323853e-02 7.548161596059799194e-02 -1.096788048744201660e-02 6.497906893491744995e-02 1.224306225776672363e-02 -4.037016257643699646e-02 -2.857216075062751770e-02 -8.571723103523254395e-02 -8.572784066200256348e-02 3.566059470176696777e-02 -2.197858132421970367e-02 -6.767179071903228760e-02 -9.477170533500611782e-04 -3.205013275146484375e-02 -3.201676532626152039e-02 5.261503159999847412e-03 4.566391557455062866e-02 -3.711957484483718872e-02 -7.258259505033493042e-02 -7.070275396108627319e-02 4.348994046449661255e-02 3.697559237480163574e-02 -3.435294330120086670e-02 -1.778200268745422363e-02 -6.709671765565872192e-02 2.615322172641754150e-02 -8.483457565307617188e-02 -4.301210865378379822e-02 -7.401809096336364746e-02 3.407954052090644836e-02 -2.968572080135345459e-02 9.161061607301235199e-03 -1.258581429719924927e-01 -1.442715376615524292e-01 -2.196862697601318359e-01 -1.916745603084564209e-01 -2.079308032989501953e-01 -3.315532803535461426e-01 -3.719610869884490967e-01 -1.682956367731094360e-01 -2.746097147464752197e-01 -3.855686187744140625e-01 -4.149313271045684814e-01 -2.767873108386993408e-01 -2.051424980163574219e-01 -1.044756472110748291e-01 1.337588415481150150e-03 3.863627463579177856e-02 5.579385161399841309e-02 1.465894281864166260e-03 6.185052543878555298e-02 -7.837053388357162476e-02 -7.984647899866104126e-02 1.003552228212356567e-02 -7.620734721422195435e-02 2.671307697892189026e-02 8.364677429199218750e-02 4.200372099876403809e-02 -7.498642057180404663e-02 -5.817824974656105042e-02 -1.482407897710800171e-01 -3.854689300060272217e-01 -4.133114814758300781e-01 -5.819372534751892090e-01 -7.136594653129577637e-01 -5.859062671661376953e-01 -3.793374300003051758e-01 -3.320033103227615356e-02 1.163686159998178482e-02 -3.755157440900802612e-02 -5.916430950164794922e-01 -6.333490610122680664e-01 -8.510085344314575195e-01 -6.016730666160583496e-01 -7.574955821037292480e-01 -5.957155823707580566e-01 -2.921707034111022949e-01 -1.569797247648239136e-01 -1.050828993320465088e-01 -2.318719774484634399e-02 -4.228783398866653442e-02 -5.456472188234329224e-02 1.132888346910476685e-02 3.077840432524681091e-02 8.058790117502212524e-02 -1.781968921422958374e-01 -3.718134760856628418e-01 -6.015229821205139160e-01 -7.859792113304138184e-01 -1.104236125946044922e+00 -8.284814357757568359e-01 -1.021726250648498535e+00 -1.182163357734680176e+00 -7.788649797439575195e-01 -4.789121747016906738e-01 -5.335541367530822754e-01 -3.440584242343902588e-01 -3.321672081947326660e-01 -6.417319774627685547e-01 -6.730855107307434082e-01 -8.352842330932617188e-01 -8.075066208839416504e-01 -6.451137661933898926e-01 -7.354820370674133301e-01 -7.645128965377807617e-01 -5.765556693077087402e-01 -2.852417230606079102e-01 -1.239509135484695435e-01 -8.102368563413619995e-02 -3.781665489077568054e-02 -5.602579191327095032e-02 -3.694072365760803223e-02 -2.381265861913561821e-03 -1.364317536354064941e-01 -4.743196368217468262e-01 -7.240778803825378418e-01 -8.020451664924621582e-01 -5.171316862106323242e-01 -3.590176701545715332e-01 -2.174100726842880249e-01 -4.736686348915100098e-01 -3.447508215904235840e-01 -6.379771232604980469e-02 -1.547409445047378540e-01 -1.089002117514610291e-01 -2.248750180006027222e-01 -2.096257656812667847e-01 -2.946465313434600830e-01 -2.914256975054740906e-02 -4.068293422460556030e-02 2.894711866974830627e-02 -3.302251696586608887e-01 -3.002798259258270264e-01 -5.351054668426513672e-01 -8.645514845848083496e-01 -3.278611302375793457e-01 -1.287264078855514526e-01 3.881444782018661499e-02 3.719308972358703613e-02 6.599724292755126953e-02 8.126304298639297485e-02 -6.630913913249969482e-02 -3.555988669395446777e-01 -3.299727141857147217e-01 -5.945362448692321777e-01 -6.255410313606262207e-01 -5.398140549659729004e-01 -5.124372839927673340e-01 -5.390559434890747070e-01 -4.734890162944793701e-01 -2.385200411081314087e-01 -2.226326018571853638e-01 -6.779979914426803589e-02 -2.878014147281646729e-01 -4.155147671699523926e-01 -3.080013096332550049e-01 -2.419705241918563843e-01 -1.439642906188964844e-01 8.291051536798477173e-02 -1.234671194106340408e-02 -1.298333704471588135e-01 -3.824142515659332275e-01 -9.855161905288696289e-01 -4.925706386566162109e-01 -1.710066348314285278e-01 5.790214985609054565e-02 8.981114253401756287e-03 -1.823494881391525269e-01 -2.434076517820358276e-01 -1.572067588567733765e-01 -5.911417603492736816e-01 -5.438317060470581055e-01 -6.231729984283447266e-01 -5.528123974800109863e-01 -5.508016943931579590e-01 -3.398959636688232422e-01 -2.332920879125595093e-01 -4.355427324771881104e-01 -3.984550237655639648e-01 -3.237941861152648926e-01 -4.272682964801788330e-01 -3.665526509284973145e-01 -4.525827169418334961e-01 -2.277170121669769287e-01 -3.081865906715393066e-01 -1.525309085845947266e-01 -1.553180068731307983e-01 -2.529490292072296143e-01 -2.853887677192687988e-01 -5.494730472564697266e-01 -1.535780429840087891e+00 -8.513305783271789551e-01 -2.660000324249267578e-01 -7.204750180244445801e-02 -2.357145398855209351e-01 -2.319985181093215942e-01 -4.181558787822723389e-01 -5.428967475891113281e-01 -6.415357589721679688e-01 -7.313159108161926270e-01 -4.740906655788421631e-01 -7.376767396926879883e-01 -4.413937032222747803e-01 -3.087791204452514648e-01 -2.854856550693511963e-01 -4.717227071523666382e-02 -2.552322447299957275e-01 -2.104584872722625732e-01 -4.208355545997619629e-01 -3.648399114608764648e-01 -3.082324564456939697e-01 -2.516076564788818359e-01 -1.400316804647445679e-01 -5.657953396439552307e-02 -1.636569648981094360e-01 -3.035166859626770020e-01 -5.687494874000549316e-01 -1.027281522750854492e+00 -1.491246819496154785e+00 -8.934775590896606445e-01 -2.223596274852752686e-01 -3.469412028789520264e-02 -2.335451394319534302e-01 -1.902924329042434692e-01 -7.760317921638488770e-01 -5.933715701103210449e-01 -9.546772837638854980e-01 -5.943592190742492676e-01 -6.621252894401550293e-01 -6.129865050315856934e-01 -5.531923174858093262e-01 -2.256338149309158325e-01 -2.954474687576293945e-01 -6.263993680477142334e-02 -3.946144506335258484e-02 -4.559098742902278900e-03 -6.796082854270935059e-02 -1.956714093685150146e-01 -2.682208642363548279e-02 -2.017370164394378662e-01 -2.218168973922729492e-01 -2.615494132041931152e-01 -4.654636979103088379e-01 -4.332066774368286133e-01 -7.469742894172668457e-01 -1.190566182136535645e+00 -1.559940457344055176e+00 -1.040585398674011230e+00 -2.666810154914855957e-01 -1.049665510654449463e-01 -1.029067263007164001e-01 -3.743972778320312500e-01 -6.599563360214233398e-01 -6.504517197608947754e-01 -8.855119943618774414e-01 -6.007685065269470215e-01 -4.736238718032836914e-01 -3.622453212738037109e-01 -3.202265501022338867e-01 -2.149175107479095459e-01 -1.551026552915573120e-01 -1.840130239725112915e-01 5.801432579755783081e-02 2.767810225486755371e-01 3.877707123756408691e-01 1.558091491460800171e-01 -8.900746703147888184e-02 -2.131847739219665527e-01 -4.050818085670471191e-01 -5.422784686088562012e-01 -4.252834320068359375e-01 -7.126973867416381836e-01 -1.126358151435852051e+00 -1.439792513847351074e+00 -1.409773826599121094e+00 -9.212348461151123047e-01 -2.261418551206588745e-01 1.239600032567977905e-02 -9.789773076772689819e-02 -3.624069690704345703e-01 -6.790603399276733398e-01 -4.318747222423553467e-01 -8.655322194099426270e-01 -6.817656159400939941e-01 -4.139623641967773438e-01 -3.331743776798248291e-01 -3.725253641605377197e-01 -2.206887602806091309e-01 1.724986359477043152e-02 -1.015224829316139221e-01 1.007311642169952393e-01 5.097057819366455078e-01 6.594963073730468750e-01 3.006440401077270508e-01 8.716280013322830200e-02 -3.701100349426269531e-01 -3.546054065227508545e-01 -5.679724216461181641e-01 -5.363240242004394531e-01 -8.255891203880310059e-01 -1.357203960418701172e+00 -1.857671260833740234e+00 -1.038381218910217285e+00 -5.092829465866088867e-01 -8.595101535320281982e-02 4.486632533371448517e-03 -3.996168263256549835e-03 -1.171163842082023621e-01 -4.132134914398193359e-01 -2.862073779106140137e-01 -5.243470668792724609e-01 -9.186286926269531250e-01 -6.437984704971313477e-01 -5.522998571395874023e-01 -4.057283103466033936e-01 -3.736459314823150635e-01 -2.767946124076843262e-01 -3.012325167655944824e-01 2.353834509849548340e-01 6.480751037597656250e-01 6.161742806434631348e-01 2.055466771125793457e-01 -1.173210218548774719e-01 -1.268099099397659302e-01 -2.844589650630950928e-01 -4.484969973564147949e-01 -7.025274634361267090e-01 -7.356609106063842773e-01 -9.724802970886230469e-01 -1.378385305404663086e+00 -6.399988532066345215e-01 -4.457310140132904053e-01 -4.000643268227577209e-02 -4.394472017884254456e-02 -2.052838951349258423e-01 -2.991765141487121582e-01 -3.217196762561798096e-01 -2.769074141979217529e-01 -4.312733113765716553e-01 -6.544772982597351074e-01 -4.777757227420806885e-01 -3.779109120368957520e-01 -2.439201325178146362e-01 -4.986771047115325928e-01 -5.517269968986511230e-01 -2.125473618507385254e-01 2.051256448030471802e-01 6.533872485160827637e-01 5.218012928962707520e-01 5.804932489991188049e-02 -1.791618950664997101e-02 -5.278841033577919006e-02 -4.715048670768737793e-01 -5.050764679908752441e-01 -3.423426449298858643e-01 -4.300214946269989014e-01 -8.399483561515808105e-01 -1.125605463981628418e+00 -6.089739799499511719e-01 -4.175187647342681885e-01 -2.930677682161331177e-02 4.529710114002227783e-02 -1.029916480183601379e-01 -2.050070464611053467e-01 -1.016750335693359375e-01 -3.582863509654998779e-01 -4.858347773551940918e-01 -6.282576918601989746e-01 -3.406128883361816406e-01 -3.325382247567176819e-02 -2.332215905189514160e-01 -9.515765309333801270e-01 -6.794533729553222656e-01 -2.027907222509384155e-01 1.341460943222045898e-01 5.452312231063842773e-01 3.141466975212097168e-01 1.542041301727294922e-01 1.882314383983612061e-01 -1.772707998752593994e-01 -6.772691607475280762e-01 -7.842712998390197754e-01 -6.655970811843872070e-01 -6.143538355827331543e-01 -9.892943501472473145e-01 -1.025242209434509277e+00 -7.157775163650512695e-01 -3.823417425155639648e-01 -2.137849330902099609e-01 2.407572232186794281e-02 -1.447474118322134018e-02 -9.144425392150878906e-02 1.135221794247627258e-01 5.929272994399070740e-02 -5.847218036651611328e-01 -8.944602012634277344e-01 -6.765849590301513672e-01 -1.136038154363632202e-01 -4.866604804992675781e-01 -8.358576893806457520e-01 -7.201616764068603516e-01 -9.151949733495712280e-02 3.177471756935119629e-01 4.895061850547790527e-01 3.039866089820861816e-01 1.404767781496047974e-01 -9.253847599029541016e-02 -6.209272742271423340e-01 -1.135563969612121582e+00 -9.119338393211364746e-01 -4.341407418251037598e-01 -6.566219329833984375e-01 -1.050557851791381836e+00 -9.718303084373474121e-01 -6.038710474967956543e-01 -3.979254662990570068e-01 -1.949281096458435059e-01 -6.585644558072090149e-03 -6.674852222204208374e-02 1.066003143787384033e-01 1.088464930653572083e-01 -1.924276202917098999e-01 -8.127124309539794922e-01 -1.038249254226684570e+00 -3.353593945503234863e-01 -2.781426012516021729e-01 -5.197958350181579590e-01 -5.883824825286865234e-01 -2.590722739696502686e-01 2.408569678664207458e-02 2.982326149940490723e-01 5.319618582725524902e-01 1.321732252836227417e-01 1.044781282544136047e-01 -5.455675721168518066e-01 -9.983540177345275879e-01 -1.433487772941589355e+00 -1.226981520652770996e+00 -5.885568261146545410e-01 -7.958209514617919922e-01 -1.235928177833557129e+00 -1.143976926803588867e+00 -7.865350842475891113e-01 -6.033676862716674805e-01 -1.422555893659591675e-01 4.174674674868583679e-02 1.281300932168960571e-01 1.417398452758789062e-01 -4.233241379261016846e-01 -5.492491126060485840e-01 -8.774421215057373047e-01 -9.375145435333251953e-01 -9.093666076660156250e-01 -4.183062016963958740e-01 -6.219864264130592346e-02 -2.462608069181442261e-01 -2.136096656322479248e-01 -1.321347951889038086e-01 2.910446822643280029e-01 4.634672701358795166e-01 -7.219000905752182007e-02 -1.865054965019226074e-01 -9.102428555488586426e-01 -1.165787577629089355e+00 -1.253487825393676758e+00 -1.122861862182617188e+00 -6.657527685165405273e-01 -7.417565584182739258e-01 -1.149704575538635254e+00 -7.769979834556579590e-01 -9.685481190681457520e-01 -4.698055386543273926e-01 -2.068047821521759033e-01 -4.665289819240570068e-02 1.552321761846542358e-01 -1.127135902643203735e-01 -7.323671579360961914e-01 -8.109508752822875977e-01 -1.020703673362731934e+00 -1.112314343452453613e+00 -8.707394003868103027e-01 -3.310697078704833984e-01 -3.416006267070770264e-01 -1.850582957267761230e-01 -3.635633587837219238e-01 -1.265802085399627686e-01 3.007569909095764160e-01 3.882763981819152832e-01 -1.743072122335433960e-01 -4.598131179809570312e-01 -9.101200103759765625e-01 -6.497021913528442383e-01 -4.829280078411102295e-01 -4.173590540885925293e-01 -5.700356960296630859e-01 -3.902444839477539062e-01 -5.545754432678222656e-01 -4.734390377998352051e-01 -7.349841594696044922e-01 -4.866383075714111328e-01 -2.390107065439224243e-01 -1.374476402997970581e-01 7.159732282161712646e-02 -3.727551102638244629e-01 -1.090569734573364258e+00 -1.375601530075073242e+00 -1.618721723556518555e+00 -1.337137579917907715e+00 -7.826424241065979004e-01 -1.361608356237411499e-01 -2.095094472169876099e-01 -3.462890088558197021e-01 -3.191534578800201416e-01 -1.276844441890716553e-01 1.939183920621871948e-01 1.415369957685470581e-01 -2.386765182018280029e-01 -6.115273237228393555e-01 -4.010519385337829590e-01 -4.433019831776618958e-02 -1.696983724832534790e-01 -9.478024207055568695e-03 -3.585663810372352600e-02 -4.028978347778320312e-01 -6.739847064018249512e-01 -5.669835209846496582e-01 -5.338583588600158691e-01 -5.535587072372436523e-01 1.479113847017288208e-02 3.082534112036228180e-02 -3.608264774084091187e-02 -5.094719529151916504e-01 -7.792941927909851074e-01 -1.204125642776489258e+00 -1.460551977157592773e+00 -5.951590538024902344e-01 -2.464215904474258423e-01 -1.726151853799819946e-01 -3.917656466364860535e-02 -2.087174355983734131e-01 -1.220170557498931885e-01 -1.720457524061203003e-01 2.235691435635089874e-02 -1.559327691793441772e-01 -1.250250637531280518e-01 -5.068602785468101501e-02 -9.286726266145706177e-02 2.408152632415294647e-02 2.986887395381927490e-01 9.436207264661788940e-02 -1.204693242907524109e-01 -3.723402023315429688e-01 -3.046628534793853760e-01 -3.982880711555480957e-01 -1.132822930812835693e-01 -4.271285235881805420e-01 2.126938104629516602e-01 -2.189707010984420776e-02 -7.108272612094879150e-02 -5.142656564712524414e-01 -1.001433134078979492e+00 -7.396841645240783691e-01 -6.181409955024719238e-01 -2.497036606073379517e-01 -1.983025968074798584e-01 -2.714771032333374023e-02 -3.114895150065422058e-02 3.351262956857681274e-02 -9.006549371406435966e-04 1.953813992440700531e-02 -1.011271774768829346e-01 -8.501658588647842407e-02 -5.499621108174324036e-02 2.419861257076263428e-01 1.551720052957534790e-01 4.441649913787841797e-01 1.930900961160659790e-01 -2.171951532363891602e-02 -9.613893181085586548e-02 -3.242531418800354004e-01 -6.914644241333007812e-01 -3.991016149520874023e-01 -1.187641620635986328e-01 -2.709162831306457520e-01 9.955176711082458496e-02 6.298297643661499023e-02 4.593675583600997925e-02 -5.213772654533386230e-01 -8.784155845642089844e-01 -2.534331381320953369e-01 1.466785818338394165e-01 -2.853441401384770870e-06 -1.011313870549201965e-02 9.883657097816467285e-03 -2.503441832959651947e-02 1.873521506786346436e-01 -1.911830008029937744e-01 -2.486956864595413208e-01 -3.038335144519805908e-01 -5.536455661058425903e-03 -5.220927763730287552e-03 3.999852389097213745e-02 1.419239491224288940e-02 2.735596299171447754e-01 1.895925998687744141e-01 1.138274371623992920e-01 7.251196354627609253e-02 -5.583442449569702148e-01 -6.382998824119567871e-01 -3.919726908206939697e-01 -1.750036776065826416e-01 -1.018034666776657104e-01 -5.103122815489768982e-02 5.783693119883537292e-02 -5.211285315454006195e-03 -4.280821382999420166e-01 -6.347392797470092773e-01 -9.629308432340621948e-02 5.913767218589782715e-01 1.311589777469635010e-01 -3.390220180153846741e-02 -1.464740633964538574e-01 -3.992737457156181335e-02 -2.245507538318634033e-01 -3.792249560356140137e-01 -6.013659834861755371e-01 -4.396291673183441162e-01 -7.144232839345932007e-02 -7.050252705812454224e-02 -6.056740880012512207e-02 2.086815685033798218e-01 2.978262603282928467e-01 1.064645498991012573e-01 1.831327681429684162e-03 -1.250855028629302979e-01 -8.380319476127624512e-01 -7.549633979797363281e-01 -4.918436408042907715e-01 -2.183913141489028931e-01 9.577105939388275146e-02 -7.616300135850906372e-02 1.262038946151733398e-03 2.301869541406631470e-02 -4.142893850803375244e-01 -8.281294107437133789e-01 -4.856302142143249512e-01 1.901869326829910278e-01 1.118272393941879272e-01 -1.174343228340148926e-01 -1.561957746744155884e-01 -1.762629598379135132e-01 -2.633835077285766602e-01 -2.863248884677886963e-01 -2.396554686129093170e-02 -2.706790268421173096e-01 -2.991757690906524658e-01 -1.183411329984664917e-01 1.030743122100830078e-02 2.407682389020919800e-01 -5.993540212512016296e-02 -1.720043867826461792e-01 -2.008389383554458618e-01 -5.087612271308898926e-01 -7.149747610092163086e-01 -7.531911730766296387e-01 -4.785450994968414307e-01 -6.682270020246505737e-02 1.667520850896835327e-01 -8.224647492170333862e-02 -5.862700566649436951e-02 6.527569144964218140e-02 -6.101594865322113037e-02 -4.078122973442077637e-01 -7.930550575256347656e-01 -2.123581916093826294e-01 -1.535014063119888306e-01 -3.238332271575927734e-01 -4.955019056797027588e-01 -1.878148913383483887e-01 -3.726951479911804199e-01 -4.317341446876525879e-01 -3.031046092510223389e-01 -4.546756446361541748e-01 -5.466204285621643066e-01 -4.039106369018554688e-01 -7.463033199310302734e-01 -4.085784852504730225e-01 -2.968390882015228271e-01 -4.425561428070068359e-01 -4.321556091308593750e-01 -2.913105487823486328e-01 -4.903154373168945312e-01 -4.641552567481994629e-01 -4.684070646762847900e-01 -2.531223744153976440e-02 -1.464078761637210846e-02 -2.551558241248130798e-02 8.115466684103012085e-02 -4.544843360781669617e-02 -8.441118523478507996e-03 -1.653857231140136719e-01 -6.094817519187927246e-01 -9.585481286048889160e-01 -1.235821247100830078e+00 -1.194948434829711914e+00 -1.125617742538452148e+00 -1.200579524040222168e+00 -1.643984436988830566e+00 -1.722335219383239746e+00 -1.242493629455566406e+00 -1.145639061927795410e+00 -1.032136440277099609e+00 -1.448758363723754883e+00 -1.822667002677917480e+00 -2.031758785247802734e+00 -2.039584875106811523e+00 -1.411375284194946289e+00 -1.263686180114746094e+00 -7.919624447822570801e-01 -5.100722312927246094e-01 -2.575531005859375000e-01 -1.559281796216964722e-01 -5.703745782375335693e-02 -6.076449528336524963e-02 -2.751511707901954651e-02 4.521060734987258911e-02 -9.551458060741424561e-03 6.147197633981704712e-02 -1.437000334262847900e-01 -4.098707735538482666e-01 -6.669012904167175293e-01 -8.956754803657531738e-01 -1.098520159721374512e+00 -1.453408837318420410e+00 -1.678362965583801270e+00 -1.186742424964904785e+00 -1.366291999816894531e+00 -1.578703761100769043e+00 -1.759676098823547363e+00 -1.470726609230041504e+00 -1.136947274208068848e+00 -1.076791048049926758e+00 -1.787129282951354980e+00 -1.354294419288635254e+00 -9.785588979721069336e-01 -8.824791312217712402e-01 -4.314077496528625488e-01 -3.568527102470397949e-01 -1.088548600673675537e-01 -4.816062003374099731e-02 5.284685641527175903e-02 -1.255121082067489624e-02 -5.329200997948646545e-02 5.015020817518234253e-02 3.495713323354721069e-02 -4.259610548615455627e-02 3.324707597494125366e-02 1.378709450364112854e-02 -1.098069995641708374e-01 -1.115330234169960022e-01 -1.091888621449470520e-01 -9.329295158386230469e-02 -2.528598904609680176e-01 -4.259133040904998779e-01 -5.777992010116577148e-01 -4.215590953826904297e-01 -6.123231649398803711e-01 -4.403317868709564209e-01 -6.668482422828674316e-01 -3.913270831108093262e-01 -4.202029407024383545e-01 -1.897846758365631104e-01 -2.841734886169433594e-01 -1.047740653157234192e-01 -1.332304328680038452e-01 -6.443762779235839844e-02 -8.401281386613845825e-02 6.041831523180007935e-02 -7.671149075031280518e-02 1.444730162620544434e-02 -7.854104042053222656e-03
-1.917626708745956421e-02 4.476094990968704224e-02 -6.083913147449493408e-03 6.840460747480392456e-02 -1.451412588357925415e-02 -6.588456779718399048e-02 -2.658255398273468018e-02 -7.902102172374725342e-02 4.214387387037277222e-02 -2.052611857652664185e-02 2.415455877780914307e-03 -8.071073144674301147e-02 -3.267953544855117798e-02 -2.898952737450599670e-02 5.538332089781761169e-02 1.150537058711051941e-01 -2.914217486977577209e-02 1.971662044525146484e-02 4.677020758390426636e-02 -2.629778534173965454e-02 1.194285601377487183e-02 5.472030490636825562e-02 -2.142284810543060303e-02 -3.817640244960784912e-03 -4.844107478857040405e-02 -2.342591434717178345e-02 -9.562544524669647217e-03 -3.030721843242645264e-02 -6.017837300896644592e-02 -8.682592213153839111e-02 -3.257166966795921326e-02 -7.241325080394744873e-02 -8.104241639375686646e-02 -3.871518187224864960e-03 -2.359358072280883789e-01 -4.010562598705291748e-01 -2.535198926925659180e-01 -3.925926387310028076e-01 -5.898922085762023926e-01 -8.790646195411682129e-01 -9.328964352607727051e-01 -9.900181293487548828e-01 -7.119077444076538086e-01 -2.551040947437286377e-01 -8.284022659063339233e-02 -4.029216468334197998e-01 -9.626992344856262207e-01 -8.537191748619079590e-01 -5.914579629898071289e-01 -3.575201332569122314e-01 -2.600383758544921875e-01 -1.219062656164169312e-01 8.194885402917861938e-02 5.073118954896926880e-02 -6.538510322570800781e-03 -5.532145127654075623e-02 4.911484569311141968e-02 5.512360483407974243e-02 -6.856635957956314087e-02 -1.803567111492156982e-01 -2.800812125205993652e-01 -2.187402546405792236e-01 -3.834128677845001221e-01 -4.177273511886596680e-01 -2.137603908777236938e-01 2.634822763502597809e-02 -1.277140527963638306e-01 -1.296969503164291382e-01 2.750952029600739479e-03 -1.846720576286315918e-01 -2.573065757751464844e-01 -2.120877802371978760e-01 -1.666823327541351318e-01 -2.394832223653793335e-01 -6.410093903541564941e-01 -9.478973746299743652e-01 -1.311713814735412598e+00 -1.250878572463989258e+00 -1.155957341194152832e+00 -5.775813460350036621e-01 -1.071015745401382446e-01 3.025080449879169464e-02 -4.731566086411476135e-02 5.146644264459609985e-02 1.914716511964797974e-02 8.079767972230911255e-02 -1.012270972132682800e-01 -2.881523072719573975e-01 -3.626406490802764893e-01 -1.011343076825141907e-01 1.979402899742126465e-01 -1.628212258219718933e-02 4.371313378214836121e-02 2.032700330018997192e-01 2.183138877153396606e-01 1.180359795689582825e-01 4.131025075912475586e-02 1.675366014242172241e-01 -4.403313621878623962e-02 -1.161335706710815430e-01 -1.459823697805404663e-01 -2.086277753114700317e-01 -4.489622116088867188e-01 -4.562032222747802734e-01 -5.481441617012023926e-01 -6.914899349212646484e-01 -9.144300222396850586e-01 -1.102831006050109863e+00 -7.277629971504211426e-01 -3.437740504741668701e-01 -1.174802184104919434e-01 -4.918686300516128540e-02 -4.985122010111808777e-02 -2.952052466571331024e-02 -1.822521537542343140e-01 -3.156173229217529297e-01 -2.560982108116149902e-01 -1.173766776919364929e-01 1.420877426862716675e-01 1.339268125593662262e-02 -1.020781174302101135e-01 8.711899071931838989e-02 -9.202921763062477112e-03 -4.496769048273563385e-03 7.281751185655593872e-02 -2.991245687007904053e-02 5.579184368252754211e-02 -1.498579680919647217e-01 -8.815566450357437134e-02 -1.229448541998863220e-01 -1.850010007619857788e-01 -3.964655101299285889e-01 -3.467531204223632812e-01 -6.405462026596069336e-01 -9.841498732566833496e-01 -1.292591094970703125e+00 -1.374292373657226562e+00 -8.086263537406921387e-01 -3.728292584419250488e-01 -4.452537000179290771e-02 2.544207125902175903e-02 1.818502694368362427e-02 -2.739029824733734131e-01 -2.470404952764511108e-01 -1.973388791084289551e-01 -1.916533857583999634e-01 -1.685268729925155640e-01 -1.954275369644165039e-01 -8.330531418323516846e-02 -1.660604476928710938e-01 -8.007504045963287354e-02 3.578671440482139587e-02 5.702281836420297623e-03 1.952939294278621674e-02 2.259599976241588593e-02 -5.453006178140640259e-02 2.189069837331771851e-01 6.579525768756866455e-03 -3.149893134832382202e-02 -1.603088676929473877e-01 -2.037894427776336670e-01 -1.908990591764450073e-01 -3.655116856098175049e-01 -8.612772822380065918e-01 -1.631098031997680664e+00 -1.137444972991943359e+00 -9.848561882972717285e-01 -1.685102432966232300e-01 -1.519215852022171021e-02 -2.602547593414783478e-02 -1.801915466785430908e-01 -3.196903467178344727e-01 -1.529315263032913208e-01 -2.057754844427108765e-01 -1.043052598834037781e-01 -6.565960496664047241e-02 -6.519295275211334229e-02 -5.567667260766029358e-02 -4.347827658057212830e-02 -3.211651742458343506e-02 -8.200306445360183716e-02 -7.848531752824783325e-02 2.274386212229728699e-02 1.219171565026044846e-02 9.794858843088150024e-02 -6.044975295662879944e-02 -1.326584964990615845e-01 -2.316803187131881714e-01 -1.907075345516204834e-01 -2.118527144193649292e-01 -3.491533398628234863e-01 -8.804139494895935059e-01 -1.673194408416748047e+00 -1.927605390548706055e+00 -1.101350665092468262e+00 -3.483129143714904785e-01 -8.206974714994430542e-02 -2.644228339195251465e-01 -3.023574948310852051e-01 -3.044218420982360840e-01 1.180206760764122009e-01 2.359673380851745605e-02 -5.872901529073715210e-02 -1.234925314784049988e-01 -2.573406137526035309e-02 -3.659214824438095093e-02 -1.036488860845565796e-01 1.096001043915748596e-01 -1.175510659813880920e-01 7.907132804393768311e-02 -3.031765297055244446e-02 -7.646514475345611572e-02 -7.829081267118453979e-02 -2.728989124298095703e-01 -1.369496881961822510e-01 -1.073787435889244080e-01 -1.794770061969757080e-01 -1.252350509166717529e-01 -9.635454416275024414e-02 -7.688040137290954590e-01 -1.580403804779052734e+00 -1.586274266242980957e+00 -1.269248247146606445e+00 -5.136623978614807129e-01 -9.658172726631164551e-02 -3.384048342704772949e-01 -3.443390429019927979e-01 -4.392369985580444336e-01 -4.543504491448402405e-02 -6.815616507083177567e-03 -8.407419174909591675e-02 -1.396778523921966553e-01 -3.672273457050323486e-02 -1.000321507453918457e-01 6.766217947006225586e-02 3.275690972805023193e-02 -7.030248641967773438e-02 -5.871924012899398804e-02 2.607138827443122864e-02 5.337727814912796021e-02 -1.147146970033645630e-01 -5.247247591614723206e-02 -1.281933188438415527e-01 1.311397179961204529e-02 -1.039115414023399353e-01 -1.833206415176391602e-01 -1.748994886875152588e-01 -3.441256284713745117e-01 -2.037673711776733398e+00 -2.227440118789672852e+00 -1.337730526924133301e+00 -3.151473701000213623e-01 -2.098942734301090240e-02 -4.051721394062042236e-01 -2.460527718067169189e-01 -3.201289772987365723e-01 -5.052153021097183228e-02 1.134110018610954285e-01 -2.078356891870498657e-01 -6.414110213518142700e-02 -1.615620702505111694e-01 2.814572677016258240e-02 1.071589663624763489e-01 -1.949630677700042725e-02 -4.732043296098709106e-02 -5.214267969131469727e-02 4.566129297018051147e-02 9.682938456535339355e-02 1.609766334295272827e-01 -1.140806172043085098e-02 -1.734042540192604065e-02 -4.954534024000167847e-02 -7.515720278024673462e-02 -2.530626654624938965e-01 -1.511714607477188110e-01 -2.889370620250701904e-01 -2.060772657394409180e+00 -2.060899496078491211e+00 -1.039753675460815430e+00 -4.460002183914184570e-01 -1.005274355411529541e-01 -3.993748724460601807e-01 -4.289380609989166260e-01 -4.102177321910858154e-01 -4.605444073677062988e-01 1.952675431966781616e-01 1.040683537721633911e-01 -2.673086822032928467e-01 -1.333089917898178101e-01 -2.066225409507751465e-01 -2.407523244619369507e-01 -1.724380701780319214e-01 -1.963149160146713257e-01 -3.171193003654479980e-01 -1.547037214040756226e-01 -2.415220141410827637e-01 -9.251952171325683594e-02 7.912965118885040283e-02 -6.821604818105697632e-02 -2.847896888852119446e-02 -1.106104329228401184e-01 -2.165174186229705811e-01 -3.886835575103759766e-01 -4.400584399700164795e-01 -1.264792561531066895e+00 -1.076369643211364746e+00 -9.031248688697814941e-01 -4.614662826061248779e-01 -1.204609125852584839e-01 -4.241628646850585938e-01 -7.803813219070434570e-01 -5.587587952613830566e-01 -4.520609676837921143e-01 -1.608764529228210449e-01 -3.585161864757537842e-01 -5.901250243186950684e-01 -5.687503814697265625e-01 -6.019631028175354004e-01 -8.329092860221862793e-01 -7.566844820976257324e-01 -8.224761486053466797e-01 -1.049951195716857910e+00 -7.221635580062866211e-01 -5.611788034439086914e-01 -2.461040616035461426e-01 -3.735466301441192627e-01 -2.037578076124191284e-01 -2.749670669436454773e-02 -2.114475518465042114e-01 -1.961033195257186890e-01 -2.112822234630584717e-01 -4.748389124870300293e-01 -4.912242591381072998e-01 -2.098101228475570679e-01 -7.461417913436889648e-01 -4.303696155548095703e-01 2.847695164382457733e-02 -2.247768789529800415e-01 -6.468777656555175781e-01 -7.855815887451171875e-01 -6.273386478424072266e-01 -7.436997294425964355e-01 -9.424074888229370117e-01 -1.186373114585876465e+00 -7.556804418563842773e-01 -7.142063975334167480e-01 -7.895502448081970215e-01 -7.142056226730346680e-01 -6.831845045089721680e-01 -6.116069555282592773e-01 -5.817722678184509277e-01 -5.275796055793762207e-01 -4.417678415775299072e-01 -3.114241957664489746e-01 -2.910654842853546143e-01 -6.215727329254150391e-02 -1.334821581840515137e-01 -2.507825195789337158e-01 -3.553380966186523438e-01 -7.137175202369689941e-01 -2.079593837261199951e-01 2.727648019790649414e-01 1.688473671674728394e-01 -1.369529217481613159e-01 -2.725003473460674286e-02 -2.154818326234817505e-01 -3.290509283542633057e-01 -7.683808207511901855e-01 -1.248395085334777832e+00 -1.208025574684143066e+00 -1.103492021560668945e+00 -9.333776831626892090e-01 -5.187484025955200195e-01 -4.150933325290679932e-01 -2.767870426177978516e-01 -1.528960466384887695e-01 -2.264721095561981201e-01 -9.738375991582870483e-02 -1.808242052793502808e-01 -3.655684888362884521e-01 -3.406388759613037109e-01 -3.321957588195800781e-01 -2.699770033359527588e-01 -2.639652788639068604e-01 -3.067864775657653809e-01 -1.571224033832550049e-01 -4.178696572780609131e-01 -2.928351163864135742e-01 2.113967984914779663e-01 5.932180881500244141e-01 7.234340906143188477e-01 9.887111932039260864e-02 -1.053746491670608521e-01 -1.346676945686340332e-01 -3.958440423011779785e-01 -4.986403286457061768e-01 -8.072888255119323730e-01 -9.073983430862426758e-01 -5.497222542762756348e-01 -2.328496426343917847e-01 -2.481510341167449951e-01 -2.151407301425933838e-01 -1.769163608551025391e-01 -9.037792682647705078e-02 -1.070271059870719910e-01 6.957994401454925537e-02 -1.029298380017280579e-01 -2.527341842651367188e-01 -1.686148643493652344e-01 -2.965447902679443359e-01 -1.484324932098388672e-01 -2.042452841997146606e-01 -1.605177223682403564e-01 -3.192923069000244141e-01 -4.066737890243530273e-01 -3.677999675273895264e-01 -9.452521800994873047e-03 3.641161620616912842e-01 7.866543531417846680e-01 2.016259580850601196e-01 -3.322875872254371643e-02 -3.181069344282150269e-02 -3.486537933349609375e-01 -6.844008713960647583e-02 -1.994568854570388794e-01 9.581256657838821411e-02 4.692207276821136475e-02 -1.544933468103408813e-01 -1.147459745407104492e-01 -1.887893080711364746e-01 -1.051722764968872070e-01 -1.364869326353073120e-01 -1.705604642629623413e-01 1.089338213205337524e-01 1.661456003785133362e-02 -4.338995367288589478e-02 -7.770341634750366211e-02 -2.465569972991943359e-01 -1.905504912137985229e-01 -1.916133910417556763e-01 -3.642939627170562744e-01 -3.267564475536346436e-01 -5.131705403327941895e-01 -3.060337603092193604e-01 1.263148039579391479e-01 4.578564465045928955e-01 8.126372694969177246e-01 2.152984887361526489e-01 -2.032477781176567078e-02 -1.970577687025070190e-01 -3.594695329666137695e-01 6.750009953975677490e-02 1.528498381376266479e-01 7.649247348308563232e-02 5.887480452656745911e-02 -1.015467047691345215e-01 -3.076105415821075439e-01 -1.044407300651073456e-02 6.674087047576904297e-02 1.603703051805496216e-01 1.755014657974243164e-01 1.855179965496063232e-01 -2.362557686865329742e-02 -8.054805546998977661e-02 1.535880938172340393e-02 1.029192879796028137e-01 -7.864169031381607056e-02 -1.007831469178199768e-01 -2.880616188049316406e-01 7.717016339302062988e-02 1.910976134240627289e-02 -1.065682619810104370e-01 1.084492281079292297e-01 9.525595903396606445e-01 8.790483474731445312e-01 2.210547775030136108e-01 4.581137746572494507e-02 -2.338397353887557983e-01 -3.146703541278839111e-01 9.292754530906677246e-02 4.736237227916717529e-02 1.194587796926498413e-01 6.254088133573532104e-02 2.172178588807582855e-02 -1.455352604389190674e-01 3.670188784599304199e-02 1.296998560428619385e-01 2.379528582096099854e-01 2.177473306655883789e-01 1.645725220441818237e-01 -1.294324640184640884e-03 -5.703549087047576904e-02 -1.099529489874839783e-01 -1.544021368026733398e-01 -8.462605625391006470e-02 -1.831950545310974121e-01 -1.593790501356124878e-01 -1.711218059062957764e-02 -5.846377089619636536e-02 -1.809749603271484375e-01 2.722497470676898956e-02 8.652574419975280762e-01 7.036036252975463867e-01 3.508580923080444336e-01 -6.284108757972717285e-02 -3.008488416671752930e-01 -5.827958583831787109e-01 -7.743015140295028687e-02 1.247870698571205139e-01 7.709481567144393921e-02 -8.006943971849977970e-05 1.380526423454284668e-01 4.592618346214294434e-02 -2.953815273940563202e-02 1.273081153631210327e-01 6.983246654272079468e-02 2.901698946952819824e-01 1.087720692157745361e-01 -1.178650069050490856e-03 -3.683704137802124023e-02 6.271006166934967041e-02 1.010041683912277222e-01 1.919740810990333557e-02 3.010426834225654602e-02 -2.307347357273101807e-01 -4.839506000280380249e-02 9.625294804573059082e-02 1.369358599185943604e-01 3.119472265243530273e-01 6.645103096961975098e-01 6.254571676254272461e-01 1.506620347499847412e-01 -1.199759766459465027e-01 -3.018140792846679688e-01 -5.976404547691345215e-01 -3.226925134658813477e-01 -1.690069772303104401e-02 -1.408413648605346680e-01 -1.229536160826683044e-01 2.064075022935867310e-01 2.752739004790782928e-02 8.269210159778594971e-02 1.263483464717864990e-01 6.727626174688339233e-02 1.557585746049880981e-01 2.100743651390075684e-01 6.626881659030914307e-02 1.175960749387741089e-01 1.054633483290672302e-01 1.383033990859985352e-01 -1.312314532697200775e-02 -1.871864497661590576e-01 1.754760742187500000e-02 5.447903648018836975e-02 1.550166606903076172e-01 -5.092170834541320801e-02 2.529440447688102722e-02 6.960292458534240723e-01 7.714599370956420898e-01 -7.588989287614822388e-02 7.367216050624847412e-03 -1.432928889989852905e-01 -2.069606631994247437e-01 -2.969572842121124268e-01 -1.384180039167404175e-01 -1.159192025661468506e-01 -5.764808971434831619e-03 1.247817128896713257e-01 8.131028711795806885e-02 6.144742295145988464e-02 1.260083615779876709e-01 1.940918713808059692e-01 1.551552265882492065e-01 9.099838137626647949e-02 -5.178223177790641785e-02 2.589654736220836639e-02 -2.074115723371505737e-02 -1.574578434228897095e-01 4.232759401202201843e-02 7.839369028806686401e-02 1.562798768281936646e-01 9.443017840385437012e-02 7.572134584188461304e-02 -9.746664017438888550e-02 1.204714551568031311e-01 5.951972603797912598e-01 5.741977691650390625e-01 -1.421585977077484131e-01 -1.447805911302566528e-01 -1.495737135410308838e-01 -1.106591373682022095e-01 -1.287971735000610352e-01 -1.581483185291290283e-01 -1.502257287502288818e-01 -1.432973891496658325e-01 -4.145794734358787537e-02 -1.552848815917968750e-01 9.029056131839752197e-02 9.868048876523971558e-02 3.941863030195236206e-02 1.427630521357059479e-02 -4.634003341197967529e-02 -5.029716715216636658e-02 -1.267400234937667847e-01 1.152565330266952515e-02 1.571350544691085815e-01 1.700068861246109009e-01 2.542595565319061279e-01 -1.023466587066650391e-01 -3.195946291089057922e-02 2.023985609412193298e-02 6.676400452852249146e-02 2.290986925363540649e-01 4.507989287376403809e-01 5.391007289290428162e-02 -8.311632275581359863e-02 -2.116870693862438202e-02 -7.885613292455673218e-02 -7.652377337217330933e-02 -9.140777401626110077e-03 -7.464796304702758789e-02 -1.414119154214859009e-01 1.061134338378906250e-01 9.899462014436721802e-02 1.329742372035980225e-01 1.542320102453231812e-01 9.982988983392715454e-02 7.680337876081466675e-02 -1.105120033025741577e-02 -1.450520940124988556e-02 -7.975614815950393677e-02 -2.124820202589035034e-01 -5.567941069602966309e-02 -4.913079738616943359e-02 1.899837106466293335e-01 2.636782452464103699e-02 6.918930262327194214e-02 -1.103486493229866028e-01 -1.141345221549272537e-02 -5.377209559082984924e-02 2.725448012351989746e-01 2.642238140106201172e-01 -2.391464263200759888e-01 -8.358779549598693848e-02 -4.112720489501953125e-02 -7.017344236373901367e-02 -4.093317985534667969e-01 -1.962573826313018799e-01 -2.908967137336730957e-01 -3.360753059387207031e-01 -1.733094602823257446e-01 6.051291711628437042e-03 -2.035541646182537079e-02 5.749459564685821533e-02 -7.539173215627670288e-02 4.533708468079566956e-02 9.670156985521316528e-02 -1.200203076004981995e-01 -8.817032724618911743e-02 -1.179994270205497742e-01 -1.154127195477485657e-01 -1.165511533617973328e-01 1.234963983297348022e-01 2.916026413440704346e-01 1.465122550725936890e-01 1.690692752599716187e-01 1.586125791072845459e-01 -2.280686423182487488e-02 4.629125073552131653e-02 2.189522832632064819e-01 -2.288042455911636353e-01 -6.042598187923431396e-02 -2.144855260848999023e-02 6.708183139562606812e-02 -2.467763274908065796e-01 -7.627029418945312500e-01 -9.038165211677551270e-01 -1.050378918647766113e+00 -7.883651852607727051e-01 -7.087024450302124023e-01 -4.322943389415740967e-01 -2.891215085983276367e-01 -4.457516074180603027e-01 -2.459165602922439575e-01 -9.786209464073181152e-02 -2.106814533472061157e-01 -9.740792214870452881e-02 -2.973098158836364746e-01 -2.446750104427337646e-01 -2.384848892688751221e-03 -1.912524364888668060e-02 -2.288839668035507202e-01 -2.408194094896316528e-01 -1.081359162926673889e-01 -1.903731822967529297e-01 -1.256176233291625977e-01 1.890306174755096436e-01 2.093866467475891113e-01 -2.813867479562759399e-02 -2.572060003876686096e-02 -7.118616998195648193e-02 6.103813648223876953e-03 -5.132398009300231934e-02 -4.181044399738311768e-01 -7.418928146362304688e-01 -1.471679449081420898e+00 -1.531279563903808594e+00 -1.728912353515625000e+00 -2.030923128128051758e+00 -2.045646190643310547e+00 -2.075017929077148438e+00 -1.722482800483703613e+00 -1.492811679840087891e+00 -1.006212949752807617e+00 -8.055735230445861816e-01 -5.802127122879028320e-01 -7.467894554138183594e-01 -8.498473763465881348e-01 -1.024397253990173340e+00 -1.007952928543090820e+00 -8.621257543563842773e-01 -9.131629467010498047e-01 -8.875577449798583984e-01 -8.271558284759521484e-01 -5.511760115623474121e-01 6.561011541634798050e-04 6.449072808027267456e-02 -1.058222353458404541e-02 -7.260377705097198486e-02 3.498175740242004395e-02 -5.162412300705909729e-02 1.705292426049709320e-02 -6.393773555755615234e-01 -9.276620745658874512e-01 -1.377223730087280273e+00 -1.523302555084228516e+00 -1.516662478446960449e+00 -1.840391278266906738e+00 -1.980864524841308594e+00 -2.210677862167358398e+00 -2.601934432983398438e+00 -2.276199817657470703e+00 -2.348381280899047852e+00 -2.005734443664550781e+00 -1.749342679977416992e+00 -1.907401919364929199e+00 -1.795922040939331055e+00 -1.935712933540344238e+00 -1.140730977058410645e+00 -1.000821471214294434e+00 -7.613667249679565430e-01 -3.958088159561157227e-01 -9.418054670095443726e-02 -9.767371416091918945e-02 2.934508025646209717e-02 -6.431525200605392456e-02 -6.228723749518394470e-02 4.683380573987960815e-02 -7.870914787054061890e-02 5.163814872503280640e-02 3.106973879039287567e-02 4.338643327355384827e-02 -2.039793729782104492e-01 -2.432298362255096436e-01 -2.592365443706512451e-01 -4.678394496440887451e-01 -6.779617667198181152e-01 -8.331446647644042969e-01 -9.170069694519042969e-01 -9.356611967086791992e-01 -1.113775253295898438e+00 -1.031433463096618652e+00 -8.417230844497680664e-01 -8.431990742683410645e-01 -5.710196495056152344e-01 -4.709638953208923340e-01 -3.219859004020690918e-01 -4.060566425323486328e-01 -2.742927074432373047e-01 -3.078893199563026428e-02 2.978128939867019653e-02 -6.068214774131774902e-02 -5.644850432872772217e-02 -2.284374833106994629e-02
-2.976721525192260742e-02 -1.614281535148620605e-02 8.232686668634414673e-02 -7.490920275449752808e-02 7.529645413160324097e-02 7.245458662509918213e-03 8.057948201894760132e-02 8.265831321477890015e-02 7.438107579946517944e-02 -8.205544948577880859e-02 -1.361300051212310791e-02 -8.390150964260101318e-02 -9.512218832969665527e-02 -5.912626162171363831e-02 -1.057812869548797607e-01 -7.916711270809173584e-02 -3.792931884527206421e-02 6.797481328248977661e-02 2.933492511510848999e-02 -2.012315392494201660e-02 -6.991976499557495117e-02 -6.057292595505714417e-02 -8.004026114940643311e-02 2.886397391557693481e-02 -5.318508669734001160e-02 -5.368411540985107422e-02 -6.558427214622497559e-02 4.726689308881759644e-02 -6.072498857975006104e-02 1.205191016197204590e-02 1.932027190923690796e-02 -1.345496624708175659e-02 4.121625050902366638e-02 7.338646799325942993e-02 -1.163631454110145569e-01 -1.158664450049400330e-01 -2.290487885475158691e-01 -2.287150770425796509e-01 -4.198854863643646240e-01 -4.601554870605468750e-01 -4.884646832942962646e-01 -7.721169590950012207e-01 -6.801664233207702637e-01 -6.153071522712707520e-01 -7.826430201530456543e-01 -7.247028946876525879e-01 -5.395772457122802734e-01 -4.835234582424163818e-01 -3.720588386058807373e-01 -1.514405012130737305e-01 -1.236087009310722351e-01 3.807605803012847900e-02 -3.082944080233573914e-02 6.279497593641281128e-02 -2.362050116062164307e-02 8.481778949499130249e-02 -1.256264746189117432e-02 3.825434297323226929e-02 4.967467393726110458e-03 4.214242100715637207e-02 -7.655740529298782349e-02 -1.284966915845870972e-01 -3.737821578979492188e-01 -6.422221660614013672e-01 -9.956073760986328125e-01 -1.367016077041625977e+00 -1.239954352378845215e+00 -1.068317890167236328e+00 -1.272312641143798828e+00 -1.289933919906616211e+00 -1.433564662933349609e+00 -1.187594652175903320e+00 -1.434178233146667480e+00 -1.107633948326110840e+00 -1.143851161003112793e+00 -1.385749459266662598e+00 -1.439693689346313477e+00 -1.227175235748291016e+00 -9.384490847587585449e-01 -5.005374550819396973e-01 -2.722896039485931396e-01 3.744536265730857849e-02 -6.971673667430877686e-02 -1.011645793914794922e-02 -2.436207979917526245e-02 -5.597098916769027710e-02 -9.126815199851989746e-02 -1.383557766675949097e-01 -1.125610470771789551e-01 -1.830336451530456543e-01 -2.630402445793151855e-01 -2.484319657087326050e-01 -1.759027838706970215e-01 -1.846082955598831177e-01 -2.129881829023361206e-01 4.858402535319328308e-02 1.674135625362396240e-01 -4.569330066442489624e-02 -2.110014110803604126e-02 -5.843938142061233521e-02 -1.422876864671707153e-01 -2.662864141166210175e-02 -1.026336550712585449e-01 -3.419012725353240967e-01 -1.185397803783416748e-01 -4.983436167240142822e-01 -8.805505633354187012e-01 -1.060286641120910645e+00 -8.042406439781188965e-01 -4.062658846378326416e-01 4.230784997344017029e-02 1.360481232404708862e-02 -1.895122230052947998e-03 1.017151623964309692e-01 -5.455277115106582642e-02 -2.512512169778347015e-02 1.853483915328979492e-01 1.415437608957290649e-01 1.362048536539077759e-01 2.060026526451110840e-01 6.101199239492416382e-02 -5.740406364202499390e-02 6.223442777991294861e-02 1.420700103044509888e-01 1.290939897298812866e-01 1.913788765668869019e-01 1.956873014569282532e-02 -3.456669393926858902e-03 8.989950269460678101e-02 -5.328347533941268921e-02 6.930366158485412598e-02 -1.141253039240837097e-01 -3.433146476745605469e-01 -5.675690770149230957e-01 -5.556806325912475586e-01 -1.296394228935241699e+00 -1.992907404899597168e+00 -1.478947639465332031e+00 -2.234599888324737549e-01 -7.188612222671508789e-02 3.544853627681732178e-02 -5.901563167572021484e-02 -6.467680633068084717e-02 2.563348412513732910e-01 2.614986002445220947e-01 1.989357024431228638e-01 1.170612797141075134e-01 7.902054488658905029e-02 -1.068474799394607544e-01 9.911726228892803192e-03 -1.589822582900524139e-02 3.542931005358695984e-02 -3.309921175241470337e-02 3.790551796555519104e-02 -8.150386065244674683e-02 2.995608747005462646e-02 1.611036658287048340e-01 -8.027132600545883179e-02 -8.583479374647140503e-02 -4.486107733100652695e-03 -2.921094000339508057e-01 -3.251006603240966797e-01 -3.709092438220977783e-01 -9.491497278213500977e-01 -1.605768084526062012e+00 -2.345323085784912109e+00 -9.054273962974548340e-01 -1.385602504014968872e-01 5.987122654914855957e-03 1.391183435916900635e-01 -1.006845682859420776e-01 8.332274109125137329e-02 6.893554702401161194e-03 3.011260181665420532e-02 -1.187532171607017517e-01 -5.941239371895790100e-02 -6.493619084358215332e-02 1.047907620668411255e-01 1.036567315459251404e-01 5.256839841604232788e-02 -6.391870230436325073e-02 1.827536523342132568e-01 -2.640138147398829460e-03 8.679782599210739136e-02 1.185357496142387390e-01 -2.939087711274623871e-02 4.377809911966323853e-02 -2.542968988418579102e-01 -9.756592661142349243e-02 -1.643856167793273926e-01 -3.254606723785400391e-01 -6.341101527214050293e-01 -1.505891799926757812e+00 -2.555902004241943359e+00 -1.303192257881164551e+00 -2.383972406387329102e-01 -1.130282431840896606e-01 1.515105962753295898e-01 -3.982072770595550537e-01 8.479526638984680176e-02 1.314337551593780518e-01 5.040061194449663162e-03 2.842291630804538727e-02 -1.702770031988620758e-02 -3.768764436244964600e-02 3.383070230484008789e-02 -5.093312636017799377e-02 -7.801069319248199463e-02 8.114536106586456299e-02 3.523780405521392822e-02 9.460680931806564331e-02 1.505772620439529419e-01 -3.552751615643501282e-02 3.460907936096191406e-02 -6.407989561557769775e-02 7.228894624859094620e-03 -1.171952188014984131e-01 -3.628539443016052246e-01 -4.056932032108306885e-01 -5.562165975570678711e-01 -1.792807102203369141e+00 -2.869508028030395508e+00 -1.395848751068115234e+00 -3.942256271839141846e-01 -4.206529259681701660e-02 -4.046545624732971191e-01 -6.039680838584899902e-01 -3.728130832314491272e-03 9.981259703636169434e-02 8.318945765495300293e-03 -3.800434991717338562e-02 -2.005282975733280182e-02 -1.576558500528335571e-01 -1.433643251657485962e-01 6.661294400691986084e-02 -9.174876660108566284e-02 5.883470550179481506e-02 -4.193495027720928192e-03 1.573821902275085449e-01 1.254383772611618042e-01 4.055937379598617554e-02 2.696921303868293762e-02 1.452428549528121948e-01 1.013557426631450653e-02 -3.282551839947700500e-02 -1.204712837934494019e-01 2.132797054946422577e-02 -7.726323604583740234e-01 -2.311727285385131836e+00 -2.559066057205200195e+00 -1.363013744354248047e+00 -3.639100193977355957e-01 -1.867307871580123901e-01 -6.608093380928039551e-01 -8.063478469848632812e-01 2.837280975654721260e-03 1.998931467533111572e-01 -9.015168249607086182e-02 6.222057342529296875e-02 7.478117942810058594e-02 8.318416774272918701e-03 -1.257280409336090088e-01 -1.897057145833969116e-01 -3.489885032176971436e-01 -3.153321444988250732e-01 -1.194001957774162292e-01 1.449523419141769409e-01 2.964036762714385986e-01 2.419471442699432373e-01 4.888496920466423035e-02 5.642560124397277832e-02 6.544274836778640747e-02 2.002029716968536377e-01 4.352651163935661316e-02 1.419928818941116333e-01 -4.614438712596893311e-01 -2.855740308761596680e+00 -1.886089682579040527e+00 -1.398714542388916016e+00 -1.925318688154220581e-01 -2.569426596164703369e-02 -6.824817061424255371e-01 -6.363096237182617188e-01 3.828088045120239258e-01 -4.493692517280578613e-02 -2.557036876678466797e-01 -9.150178730487823486e-02 -1.556347906589508057e-01 -3.382661044597625732e-01 -6.225457191467285156e-01 -6.369293928146362305e-01 -6.073560118675231934e-01 -5.680310130119323730e-01 -5.333187431097030640e-02 7.792615145444869995e-02 9.809155948460102081e-03 9.467968344688415527e-02 1.031713262200355530e-01 8.633490651845932007e-02 1.245255842804908752e-01 6.592635065317153931e-02 8.945122361183166504e-03 -4.096179082989692688e-02 -3.865073323249816895e-01 -2.734744787216186523e+00 -1.650458812713623047e+00 -1.153378367424011230e+00 -2.584921419620513916e-01 -2.060882896184921265e-01 -6.715842485427856445e-01 -5.801940560340881348e-01 3.398611843585968018e-01 -1.131594851613044739e-01 -4.081020355224609375e-01 -3.522066175937652588e-01 -6.852279901504516602e-01 -6.487741470336914062e-01 -5.580449700355529785e-01 -4.536203444004058838e-01 -3.552475571632385254e-01 -2.388827353715896606e-01 -9.303549677133560181e-02 9.696404635906219482e-02 1.842108182609081268e-02 -5.984081327915191650e-02 1.541026681661605835e-01 -3.403008729219436646e-02 -3.524366999045014381e-03 6.929794698953628540e-02 -3.248061835765838623e-01 -3.749879002571105957e-01 -6.943290233612060547e-01 -1.860440492630004883e+00 -1.149920463562011719e+00 -8.355000615119934082e-01 -8.783317357301712036e-02 -4.686119407415390015e-02 -5.349364876747131348e-01 -7.204191088676452637e-01 -1.359684616327285767e-01 -4.891046285629272461e-01 -5.212826728820800781e-01 -6.529373526573181152e-01 -5.191036462783813477e-01 -5.390377044677734375e-01 -2.634001374244689941e-01 -1.516957432031631470e-01 -1.926361173391342163e-01 -2.830904349684715271e-02 -2.275403030216693878e-02 1.831872463226318359e-01 3.661967068910598755e-02 -1.500071771442890167e-02 -5.003318563103675842e-02 4.646125435829162598e-02 -1.811946630477905273e-01 -2.474345266819000244e-01 -7.201600670814514160e-01 -8.762579560279846191e-01 -1.268840193748474121e+00 -1.599971055984497070e+00 -6.026968359947204590e-01 -7.193928956985473633e-01 -2.320192754268646240e-01 -9.353360533714294434e-02 -4.418238103389739990e-01 -8.926612734794616699e-01 -3.784979879856109619e-01 -6.608211398124694824e-01 -6.518909931182861328e-01 -5.255977511405944824e-01 -5.349068641662597656e-01 -2.520868778228759766e-01 -2.903856635093688965e-01 -3.008008897304534912e-01 -3.036560714244842529e-01 -9.646880626678466797e-02 1.170313283801078796e-01 5.870803818106651306e-02 -1.324594318866729736e-01 -7.405777275562286377e-02 1.285365503281354904e-02 -2.114843809977173805e-03 -2.205593734979629517e-01 -5.600554943084716797e-01 -7.168509960174560547e-01 -9.917144179344177246e-01 -7.950376272201538086e-01 -1.221937894821166992e+00 -9.896616935729980469e-01 -6.979690790176391602e-01 -1.553513109683990479e-01 1.232072897255420685e-02 -5.583010986447334290e-02 -4.166515171527862549e-01 -3.584090173244476318e-01 -4.692408144474029541e-01 -6.777429580688476562e-01 -6.127697229385375977e-01 -5.135133862495422363e-01 -2.992300391197204590e-01 -2.053240537643432617e-01 -2.169102877378463745e-01 -3.156893253326416016e-01 -5.902924016118049622e-02 2.751003205776214600e-02 1.412652991712093353e-02 -1.036815792322158813e-01 -1.515009403228759766e-01 -1.149609163403511047e-01 -1.423960328102111816e-01 -2.598083317279815674e-01 -3.075852692127227783e-01 -2.477567046880722046e-01 -4.453247785568237305e-01 -4.217808544635772705e-01 -9.080482721328735352e-01 -1.469095826148986816e+00 -8.408434391021728516e-01 -1.789818704128265381e-01 -2.228456363081932068e-02 -5.133675038814544678e-02 7.864177227020263672e-02 -3.556736186146736145e-02 -2.558317482471466064e-01 -4.007276892662048340e-01 -4.601468443870544434e-01 -4.653612673282623291e-01 -4.185717403888702393e-01 -4.342456758022308350e-01 -2.655602395534515381e-01 -1.294697374105453491e-01 9.697671979665756226e-03 -5.196718499064445496e-02 6.077007949352264404e-02 -5.610597785562276840e-03 -1.692720055580139160e-01 -1.603626012802124023e-01 -1.792169362306594849e-01 -7.425198704004287720e-02 1.261727139353752136e-02 -9.040052443742752075e-02 3.029199317097663879e-02 1.562700420618057251e-01 -3.548466265201568604e-01 -1.780042052268981934e+00 -7.948173880577087402e-01 -2.655481994152069092e-01 -6.787834316492080688e-02 1.161751523613929749e-01 2.495795041322708130e-01 2.291156947612762451e-01 3.147640451788902283e-02 -1.452041715383529663e-01 -3.064483702182769775e-01 -4.552315175533294678e-01 -5.454455614089965820e-01 -3.078443408012390137e-01 -3.270089626312255859e-01 -1.314940452575683594e-01 -6.765132397413253784e-02 1.188609972596168518e-01 -1.382661014795303345e-01 -2.228109538555145264e-01 -3.003779947757720947e-01 -1.830330342054367065e-01 1.171857304871082306e-02 1.485021710395812988e-01 5.786446854472160339e-03 -4.975602030754089355e-02 3.216863423585891724e-02 2.322457134723663330e-01 -2.803434617817401886e-02 -2.044299364089965820e+00 -1.151230812072753906e+00 -3.315846323966979980e-01 7.558362931013107300e-02 1.034941747784614563e-01 4.216103851795196533e-01 2.200511544942855835e-01 7.979893684387207031e-02 -4.165358841419219971e-02 -3.163643181324005127e-01 -2.593175768852233887e-01 -4.436333477497100830e-01 -6.400116682052612305e-01 -7.021942734718322754e-01 -5.059074759483337402e-01 -4.562186598777770996e-01 -3.352088332176208496e-01 -5.242133140563964844e-01 -3.859829902648925781e-01 -1.660846322774887085e-01 1.646300591528415680e-02 -4.751310683786869049e-03 1.535092592239379883e-01 -1.520248502492904663e-01 -2.359606698155403137e-02 1.297037154436111450e-01 6.034645438194274902e-02 -5.395924448966979980e-01 -1.648261189460754395e+00 -1.198770046234130859e+00 -4.732662141323089600e-01 -1.048493459820747375e-01 1.405654400587081909e-01 4.861035645008087158e-01 4.472869932651519775e-01 -4.145009070634841919e-02 2.888481318950653076e-02 -5.035162344574928284e-02 -3.434701561927795410e-01 -2.281733602285385132e-01 -4.918332993984222412e-01 -5.421969890594482422e-01 -5.111026167869567871e-01 -6.071391701698303223e-01 -4.349227249622344971e-01 -3.691991865634918213e-01 -2.987258322536945343e-02 2.412680983543395996e-01 7.040546089410781860e-02 7.845389097929000854e-02 1.175736933946609497e-01 2.650294266641139984e-02 5.817572027444839478e-02 1.638530641794204712e-01 -6.746318191289901733e-02 -9.207957983016967773e-01 -2.011316061019897461e+00 -1.186163187026977539e+00 -2.741042673587799072e-01 -6.484032422304153442e-02 -1.538033932447433472e-01 1.058313325047492981e-01 3.168571889400482178e-01 -6.317090243101119995e-02 1.329668462276458740e-01 -3.999570850282907486e-03 -2.033494859933853149e-01 -2.023961544036865234e-01 -2.271668314933776855e-01 -2.731934785842895508e-01 -4.207625389099121094e-01 -3.325957357883453369e-01 -2.427930980920791626e-01 -4.734706133604049683e-02 7.846873998641967773e-02 1.132604703307151794e-01 1.688790619373321533e-01 1.363766193389892578e-01 2.730193175375461578e-02 -9.894768148660659790e-02 9.478199481964111328e-02 -9.465511888265609741e-02 -1.025405824184417725e-01 -1.025870919227600098e+00 -2.218818902969360352e+00 -1.032452821731567383e+00 -2.082600295543670654e-01 -8.314111083745956421e-02 9.459002315998077393e-02 5.759947001934051514e-02 2.609513401985168457e-01 -2.560645528137683868e-02 2.294184640049934387e-02 1.082352697849273682e-01 -1.053395215421915054e-02 -6.242612143978476524e-04 5.474641919136047363e-02 -1.564524173736572266e-01 -2.955213785171508789e-01 -4.378366470336914062e-01 -1.511694788932800293e-01 -2.678892947733402252e-02 -5.762530863285064697e-02 1.375363022089004517e-02 1.391921490430831909e-01 1.276350617408752441e-01 2.015422098338603973e-03 9.738007187843322754e-02 -3.224471956491470337e-02 -1.793598681688308716e-01 -1.990312486886978149e-01 -1.148798942565917969e+00 -2.182360887527465820e+00 -6.005781888961791992e-01 -1.401548534631729126e-01 -5.555718671530485153e-04 1.258492618799209595e-01 1.084421500563621521e-01 1.442699581384658813e-01 -3.876969590783119202e-02 -2.517089843750000000e-01 4.140189662575721741e-02 -2.254333347082138062e-02 -4.790067207068204880e-03 -2.590010762214660645e-01 -1.552835106849670410e-01 -1.515291035175323486e-01 -1.508180946111679077e-01 -1.438714116811752319e-01 -1.435396075248718262e-01 -9.945224970579147339e-03 5.825292319059371948e-02 -5.340261757373809814e-02 1.451391726732254028e-01 7.884612679481506348e-02 -1.916401833295822144e-01 -3.449234366416931152e-01 -3.456636071205139160e-01 -4.535393118858337402e-01 -1.453967571258544922e+00 -1.567553043365478516e+00 -4.248283803462982178e-01 3.751869313418865204e-03 8.010493591427803040e-03 -1.859665662050247192e-02 4.313243627548217773e-01 1.635227501392364502e-01 -2.103980332612991333e-01 -3.259061574935913086e-01 -3.896112367510795593e-02 -1.504154801368713379e-01 -1.678117215633392334e-01 -1.235473528504371643e-01 -5.711913853883743286e-02 -2.859192714095115662e-02 -1.641710549592971802e-01 -1.152921766042709351e-01 -1.001480668783187866e-01 -5.316154658794403076e-02 -3.061464987695217133e-02 5.284117162227630615e-02 -4.673876613378524780e-02 8.530088514089584351e-02 -3.091800212860107422e-02 -2.956557869911193848e-01 -3.085517883300781250e-01 -6.782864928245544434e-01 -1.407325148582458496e+00 -1.178852677345275879e+00 -2.224810868501663208e-01 -1.439160387963056564e-02 2.340362966060638428e-02 -6.401322782039642334e-03 5.825820565223693848e-01 6.237900853157043457e-01 1.417815983295440674e-01 8.594768005423247814e-04 5.391288921236991882e-02 9.843342751264572144e-02 -1.549906134605407715e-01 5.276552215218544006e-02 3.100543096661567688e-02 1.089510694146156311e-01 -1.537484526634216309e-01 -2.406129240989685059e-02 -1.242004781961441040e-01 -4.794119670987129211e-02 -2.187685519456863403e-01 -9.479247033596038818e-02 7.596553862094879150e-02 -8.846736699342727661e-02 -2.425778508186340332e-01 -3.774433732032775879e-01 -6.741362214088439941e-01 -8.665359020233154297e-01 -9.247183799743652344e-01 -4.994300901889801025e-01 -1.792167425155639648e-01 2.363339066505432129e-02 5.514141172170639038e-02 -5.944614112377166748e-02 3.072538077831268311e-01 4.964233636856079102e-01 2.244143187999725342e-01 -4.798121005296707153e-02 1.018482670187950134e-01 1.829724460840225220e-01 3.338553011417388916e-02 -2.420483343303203583e-02 1.942737400531768799e-01 1.354142874479293823e-01 1.019894629716873169e-01 1.312127113342285156e-01 7.135999947786331177e-02 -1.147621646523475647e-01 1.613254426047205925e-06 5.165950208902359009e-02 -3.211974501609802246e-01 -5.071813464164733887e-01 -4.780384898185729980e-01 -8.217409253120422363e-01 -6.456195712089538574e-01 -9.316858053207397461e-01 -6.721392273902893066e-01 -3.554296195507049561e-01 -1.918009519577026367e-01 1.639527827501296997e-02 3.392048925161361694e-02 -1.635278761386871338e-02 8.383407443761825562e-02 -1.762031167745590210e-01 -2.317642867565155029e-01 -2.226335555315017700e-01 1.206912621855735779e-01 2.355412393808364868e-01 3.655505478382110596e-01 3.046446740627288818e-01 3.283896148204803467e-01 1.889574378728866577e-01 2.955041229724884033e-01 2.398274093866348267e-01 -6.830246746540069580e-02 -1.932469904422760010e-01 -2.150135040283203125e-01 -3.529158234596252441e-01 -3.931095898151397705e-01 -4.071218371391296387e-01 -6.744595766067504883e-01 -7.332346439361572266e-01 -9.123496413230895996e-01 -7.986849546432495117e-01 -4.186790287494659424e-01 -2.081443741917610168e-02 -1.959112845361232758e-02 -3.344609960913658142e-02 -8.538413047790527344e-02 -9.394757449626922607e-03 -3.283285349607467651e-02 -1.221727952361106873e-01 -5.670946240425109863e-01 -9.129880666732788086e-01 -1.055357456207275391e+00 -1.018368124961853027e+00 -1.261763453483581543e+00 -1.544945716857910156e+00 -1.123375058174133301e+00 -1.387847900390625000e+00 -1.377389907836914062e+00 -1.158596754074096680e+00 -1.364910006523132324e+00 -1.271207213401794434e+00 -8.474440574645996094e-01 -1.021930336952209473e+00 -1.226364970207214355e+00 -9.525806307792663574e-01 -9.056797027587890625e-01 -7.361814975738525391e-01 -6.155131459236145020e-01 -4.011035561561584473e-01 -4.294792562723159790e-02 -1.140139065682888031e-02 -6.588761508464813232e-02 -1.466892659664154053e-03 -1.648534834384918213e-02 1.494314521551132202e-02 3.905519843101501465e-03 7.847712188959121704e-02 -9.498491883277893066e-02 -5.576680600643157959e-02 -1.946467906236648560e-01 -4.667567014694213867e-01 -6.475261449813842773e-01 -8.460729718208312988e-01 -1.087821125984191895e+00 -1.459448933601379395e+00 -1.612627863883972168e+00 -1.685187458992004395e+00 -1.564756751060485840e+00 -1.869469404220581055e+00 -1.682148694992065430e+00 -1.510961294174194336e+00 -1.008932709693908691e+00 -7.718713283538818359e-01 -4.896086752414703369e-01 -4.299081265926361084e-01 -3.206519484519958496e-01 -4.859729483723640442e-02 -1.930864155292510986e-02 -5.776581913232803345e-02 5.717953294515609741e-02 -5.324386432766914368e-02
